<?xml version="1.0"?>
<opencv_storage>
<cascade>
  <stageType>BOOST</stageType>
  <featureType>HAAR</featureType>
  <height>30</height>
  <width>30</width>
  <stageParams>
    <boostType>GAB</boostType>
    <minHitRate>9.9500000476837158e-01</minHitRate>
    <maxFalseAlarm>5.0000000000000000e-01</maxFalseAlarm>
    <weightTrimRate>9.4999998807907104e-01</weightTrimRate>
    <maxDepth>1</maxDepth>
    <maxWeakCount>100</maxWeakCount></stageParams>
  <featureParams>
    <maxCatCount>0</maxCatCount>
    <featSize>1</featSize>
    <mode>BASIC</mode></featureParams>
  <stageNum>8</stageNum>
  <stages>
    <!-- stage 0 -->
    <_>
      <maxWeakCount>10</maxWeakCount>
      <stageThreshold>-2.1577522754669189e+00</stageThreshold>
      <weakClassifiers>
        <_>
          <internalNodes>
            0 -1 26 8.5951142013072968e-02</internalNodes>
          <leafValues>
            -8.8949984312057495e-01 4.5975947380065918e-01</leafValues></_>
        <_>
          <internalNodes>
            0 -1 7 3.4875731915235519e-02</internalNodes>
          <leafValues>
            -8.2339328527450562e-01 4.9446785449981689e-01</leafValues></_>
        <_>
          <internalNodes>
            0 -1 24 -6.2314212322235107e-02</internalNodes>
          <leafValues>
            6.3542777299880981e-01 -4.8222267627716064e-01</leafValues></_>
        <_>
          <internalNodes>
            0 -1 56 -3.5079162567853928e-02</internalNodes>
          <leafValues>
            5.1810252666473389e-01 -2.6263219118118286e-01</leafValues></_>
        <_>
          <internalNodes>
            0 -1 35 5.7392641901969910e-02</internalNodes>
          <leafValues>
            -2.2422075271606445e-01 5.7318335771560669e-01</leafValues></_>
        <_>
          <internalNodes>
            0 -1 66 2.9655883554369211e-04</internalNodes>
          <leafValues>
            2.0930141210556030e-01 -6.4729362726211548e-01</leafValues></_>
        <_>
          <internalNodes>
            0 -1 22 6.9178983569145203e-02</internalNodes>
          <leafValues>
            -2.4237433075904846e-01 4.8021328449249268e-01</leafValues></_>
        <_>
          <internalNodes>
            0 -1 34 -1.8692862242460251e-02</internalNodes>
          <leafValues>
            4.0910103917121887e-01 -2.8379529714584351e-01</leafValues></_>
        <_>
          <internalNodes>
            0 -1 37 -4.5634224079549313e-03</internalNodes>
          <leafValues>
            5.2920073270797729e-01 -2.5990983843803406e-01</leafValues></_>
        <_>
          <internalNodes>
            0 -1 12 1.5287908911705017e-01</internalNodes>
          <leafValues>
            -2.4826480448246002e-01 4.7995486855506897e-01</leafValues></_></weakClassifiers></_>
    <!-- stage 1 -->
    <_>
      <maxWeakCount>10</maxWeakCount>
      <stageThreshold>-2.1806263923645020e+00</stageThreshold>
      <weakClassifiers>
        <_>
          <internalNodes>
            0 -1 28 3.1918086111545563e-02</internalNodes>
          <leafValues>
            -9.4669008255004883e-01 2.2341857850551605e-01</leafValues></_>
        <_>
          <internalNodes>
            0 -1 53 -8.1150099635124207e-02</internalNodes>
          <leafValues>
            5.4028677940368652e-01 -7.4795132875442505e-01</leafValues></_>
        <_>
          <internalNodes>
            0 -1 11 3.8338825106620789e-03</internalNodes>
          <leafValues>
            -5.6804692745208740e-01 3.8910678029060364e-01</leafValues></_>
        <_>
          <internalNodes>
            0 -1 69 -3.1790714710950851e-03</internalNodes>
          <leafValues>
            4.0121546387672424e-01 -3.6648020148277283e-01</leafValues></_>
        <_>
          <internalNodes>
            0 -1 27 3.4020870225504041e-04</internalNodes>
          <leafValues>
            1.4188703894615173e-01 -8.2182729244232178e-01</leafValues></_>
        <_>
          <internalNodes>
            0 -1 18 4.1443659574724734e-04</internalNodes>
          <leafValues>
            1.9452649354934692e-01 -5.6438386440277100e-01</leafValues></_>
        <_>
          <internalNodes>
            0 -1 14 -4.9662038683891296e-02</internalNodes>
          <leafValues>
            5.0619131326675415e-01 -2.0748661458492279e-01</leafValues></_>
        <_>
          <internalNodes>
            0 -1 33 1.5732896327972412e-01</internalNodes>
          <leafValues>
            -2.2661054134368896e-01 5.2320933341979980e-01</leafValues></_>
        <_>
          <internalNodes>
            0 -1 46 -6.0369278071448207e-04</internalNodes>
          <leafValues>
            4.2028900980949402e-01 -2.8538069128990173e-01</leafValues></_>
        <_>
          <internalNodes>
            0 -1 47 -7.6680658385157585e-03</internalNodes>
          <leafValues>
            -9.6908241510391235e-01 1.2593686580657959e-01</leafValues></_></weakClassifiers></_>
    <!-- stage 2 -->
    <_>
      <maxWeakCount>12</maxWeakCount>
      <stageThreshold>-2.4107146263122559e+00</stageThreshold>
      <weakClassifiers>
        <_>
          <internalNodes>
            0 -1 8 8.8779538869857788e-02</internalNodes>
          <leafValues>
            -8.7632220983505249e-01 2.7287715673446655e-01</leafValues></_>
        <_>
          <internalNodes>
            0 -1 30 -3.0374167487025261e-02</internalNodes>
          <leafValues>
            3.7425485253334045e-01 -8.1859922409057617e-01</leafValues></_>
        <_>
          <internalNodes>
            0 -1 20 2.8047474101185799e-02</internalNodes>
          <leafValues>
            -6.0203403234481812e-01 4.0709564089775085e-01</leafValues></_>
        <_>
          <internalNodes>
            0 -1 6 -2.2342361626215279e-04</internalNodes>
          <leafValues>
            -6.5058588981628418e-01 1.9119694828987122e-01</leafValues></_>
        <_>
          <internalNodes>
            0 -1 61 2.3636658443138003e-04</internalNodes>
          <leafValues>
            2.1713168919086456e-01 -6.8249207735061646e-01</leafValues></_>
        <_>
          <internalNodes>
            0 -1 45 6.3093975768424571e-05</internalNodes>
          <leafValues>
            -3.2775890827178955e-01 4.0297001600265503e-01</leafValues></_>
        <_>
          <internalNodes>
            0 -1 55 5.7488773018121719e-04</internalNodes>
          <leafValues>
            2.5211095809936523e-01 -5.4898816347122192e-01</leafValues></_>
        <_>
          <internalNodes>
            0 -1 70 -4.4454913586378098e-03</internalNodes>
          <leafValues>
            4.0039503574371338e-01 -3.1392395496368408e-01</leafValues></_>
        <_>
          <internalNodes>
            0 -1 44 -1.7436094640288502e-04</internalNodes>
          <leafValues>
            4.1402217745780945e-01 -2.9776442050933838e-01</leafValues></_>
        <_>
          <internalNodes>
            0 -1 41 1.5519872307777405e-01</internalNodes>
          <leafValues>
            -1.4658243954181671e-01 8.0746775865554810e-01</leafValues></_>
        <_>
          <internalNodes>
            0 -1 1 -5.1700574113056064e-04</internalNodes>
          <leafValues>
            -6.4216321706771851e-01 2.1085821092128754e-01</leafValues></_>
        <_>
          <internalNodes>
            0 -1 4 -3.5851757274940610e-04</internalNodes>
          <leafValues>
            -5.3543335199356079e-01 2.2326517105102539e-01</leafValues></_></weakClassifiers></_>
    <!-- stage 3 -->
    <_>
      <maxWeakCount>14</maxWeakCount>
      <stageThreshold>-2.2378172874450684e+00</stageThreshold>
      <weakClassifiers>
        <_>
          <internalNodes>
            0 -1 54 -5.8871082961559296e-02</internalNodes>
          <leafValues>
            8.1371888518333435e-02 -8.8514500856399536e-01</leafValues></_>
        <_>
          <internalNodes>
            0 -1 5 5.0815556198358536e-02</internalNodes>
          <leafValues>
            -7.9714924097061157e-01 3.4296089410781860e-01</leafValues></_>
        <_>
          <internalNodes>
            0 -1 3 3.0702883377671242e-02</internalNodes>
          <leafValues>
            -6.0854613780975342e-01 3.5664036870002747e-01</leafValues></_>
        <_>
          <internalNodes>
            0 -1 23 -8.5714600980281830e-02</internalNodes>
          <leafValues>
            5.0917702913284302e-01 -2.9929241538047791e-01</leafValues></_>
        <_>
          <internalNodes>
            0 -1 62 4.4516826164908707e-04</internalNodes>
          <leafValues>
            2.5131145119667053e-01 -6.2650048732757568e-01</leafValues></_>
        <_>
          <internalNodes>
            0 -1 49 -1.1233328841626644e-03</internalNodes>
          <leafValues>
            4.3153348565101624e-01 -3.5023295879364014e-01</leafValues></_>
        <_>
          <internalNodes>
            0 -1 59 6.3854845939204097e-04</internalNodes>
          <leafValues>
            2.6554962992668152e-01 -5.7587021589279175e-01</leafValues></_>
        <_>
          <internalNodes>
            0 -1 43 2.5489978725090623e-04</internalNodes>
          <leafValues>
            -3.2988774776458740e-01 4.6936693787574768e-01</leafValues></_>
        <_>
          <internalNodes>
            0 -1 58 2.0082861010450870e-04</internalNodes>
          <leafValues>
            2.5126969814300537e-01 -5.7625621557235718e-01</leafValues></_>
        <_>
          <internalNodes>
            0 -1 0 -1.8850376363843679e-04</internalNodes>
          <leafValues>
            -5.4962128400802612e-01 2.2286920249462128e-01</leafValues></_>
        <_>
          <internalNodes>
            0 -1 38 1.0307959746569395e-03</internalNodes>
          <leafValues>
            -3.2132592797279358e-01 4.4984108209609985e-01</leafValues></_>
        <_>
          <internalNodes>
            0 -1 29 1.0373339755460620e-03</internalNodes>
          <leafValues>
            2.6792699098587036e-01 -4.6217384934425354e-01</leafValues></_>
        <_>
          <internalNodes>
            0 -1 36 3.3488334156572819e-03</internalNodes>
          <leafValues>
            -3.4530729055404663e-01 4.6399995684623718e-01</leafValues></_>
        <_>
          <internalNodes>
            0 -1 16 8.9617315679788589e-03</internalNodes>
          <leafValues>
            -2.3497900366783142e-01 7.2148638963699341e-01</leafValues></_></weakClassifiers></_>
    <!-- stage 4 -->
    <_>
      <maxWeakCount>10</maxWeakCount>
      <stageThreshold>-2.1625101566314697e+00</stageThreshold>
      <weakClassifiers>
        <_>
          <internalNodes>
            0 -1 10 9.9540323019027710e-02</internalNodes>
          <leafValues>
            -8.7319123744964600e-01 3.8125568628311157e-01</leafValues></_>
        <_>
          <internalNodes>
            0 -1 64 -1.7085062339901924e-02</internalNodes>
          <leafValues>
            4.9611377716064453e-01 -7.6733922958374023e-01</leafValues></_>
        <_>
          <internalNodes>
            0 -1 17 -6.3863821327686310e-02</internalNodes>
          <leafValues>
            4.1602188348770142e-01 -5.8442741632461548e-01</leafValues></_>
        <_>
          <internalNodes>
            0 -1 65 -3.8663047598674893e-04</internalNodes>
          <leafValues>
            -7.0234060287475586e-01 2.3803594708442688e-01</leafValues></_>
        <_>
          <internalNodes>
            0 -1 68 -3.7909622187726200e-04</internalNodes>
          <leafValues>
            -7.2322386503219604e-01 2.4305425584316254e-01</leafValues></_>
        <_>
          <internalNodes>
            0 -1 50 3.3410222386009991e-04</internalNodes>
          <leafValues>
            3.2814484834671021e-01 -5.1005464792251587e-01</leafValues></_>
        <_>
          <internalNodes>
            0 -1 52 2.4679437046870589e-04</internalNodes>
          <leafValues>
            -2.8151950240135193e-01 6.1405259370803833e-01</leafValues></_>
        <_>
          <internalNodes>
            0 -1 21 4.7113173641264439e-03</internalNodes>
          <leafValues>
            -3.7290260195732117e-01 4.7919955849647522e-01</leafValues></_>
        <_>
          <internalNodes>
            0 -1 31 -4.0649004280567169e-02</internalNodes>
          <leafValues>
            6.9462502002716064e-01 -2.5885280966758728e-01</leafValues></_>
        <_>
          <internalNodes>
            0 -1 39 1.0287576587870717e-03</internalNodes>
          <leafValues>
            2.1129199862480164e-01 -8.3828687667846680e-01</leafValues></_></weakClassifiers></_>
    <!-- stage 5 -->
    <_>
      <maxWeakCount>9</maxWeakCount>
      <stageThreshold>-1.6585893630981445e+00</stageThreshold>
      <weakClassifiers>
        <_>
          <internalNodes>
            0 -1 13 8.4761485457420349e-02</internalNodes>
          <leafValues>
            -7.6311028003692627e-01 1.</leafValues></_>
        <_>
          <internalNodes>
            0 -1 32 -1.6918390989303589e-02</internalNodes>
          <leafValues>
            4.8943170905113220e-01 -7.7587717771530151e-01</leafValues></_>
        <_>
          <internalNodes>
            0 -1 57 -2.9666334390640259e-02</internalNodes>
          <leafValues>
            4.6701478958129883e-01 -6.8421339988708496e-01</leafValues></_>
        <_>
          <internalNodes>
            0 -1 63 3.8997322553768754e-04</internalNodes>
          <leafValues>
            4.0044754743576050e-01 -6.5860122442245483e-01</leafValues></_>
        <_>
          <internalNodes>
            0 -1 51 2.0423351088538766e-04</internalNodes>
          <leafValues>
            -4.0641549229621887e-01 6.4623552560806274e-01</leafValues></_>
        <_>
          <internalNodes>
            0 -1 19 -2.3540877009509131e-05</internalNodes>
          <leafValues>
            -6.5157878398895264e-01 3.5703375935554504e-01</leafValues></_>
        <_>
          <internalNodes>
            0 -1 42 -1.9898633763659745e-04</internalNodes>
          <leafValues>
            6.2844580411911011e-01 -3.6961665749549866e-01</leafValues></_>
        <_>
          <internalNodes>
            0 -1 71 -2.4711110163480043e-03</internalNodes>
          <leafValues>
            -6.5312218666076660e-01 3.4609690308570862e-01</leafValues></_>
        <_>
          <internalNodes>
            0 -1 60 1.0814527922775596e-04</internalNodes>
          <leafValues>
            3.1002834439277649e-01 -7.5459927320480347e-01</leafValues></_></weakClassifiers></_>
    <!-- stage 6 -->
    <_>
      <maxWeakCount>5</maxWeakCount>
      <stageThreshold>-2.1217226982116699e+00</stageThreshold>
      <weakClassifiers>
        <_>
          <internalNodes>
            0 -1 15 1.1704428121447563e-02</internalNodes>
          <leafValues>
            -9.4361788034439087e-01 6.6884940862655640e-01</leafValues></_>
        <_>
          <internalNodes>
            0 -1 12 2.1378439664840698e-01</internalNodes>
          <leafValues>
            -7.1481657028198242e-01 1.</leafValues></_>
        <_>
          <internalNodes>
            0 -1 25 1.3466387463267893e-04</internalNodes>
          <leafValues>
            6.3933038711547852e-01 -6.5173590183258057e-01</leafValues></_>
        <_>
          <internalNodes>
            0 -1 9 -5.1560520660132170e-04</internalNodes>
          <leafValues>
            -6.5236377716064453e-01 6.1451274156570435e-01</leafValues></_>
        <_>
          <internalNodes>
            0 -1 48 -2.2551928850589320e-05</internalNodes>
          <leafValues>
            9.4111919403076172e-01 -4.5025491714477539e-01</leafValues></_></weakClassifiers></_>
    <!-- stage 7 -->
    <_>
      <maxWeakCount>3</maxWeakCount>
      <stageThreshold>-9.2524200677871704e-01</stageThreshold>
      <weakClassifiers>
        <_>
          <internalNodes>
            0 -1 2 -2.0723366178572178e-03</internalNodes>
          <leafValues>
            -9.8523795604705811e-01 1.</leafValues></_>
        <_>
          <internalNodes>
            0 -1 67 -2.2018176969140768e-03</internalNodes>
          <leafValues>
            -9.4000399112701416e-01 1.</leafValues></_>
        <_>
          <internalNodes>
            0 -1 40 2.7457023039460182e-02</internalNodes>
          <leafValues>
            1. -9.0194302797317505e-01</leafValues></_></weakClassifiers></_></stages>
  <features>
    <_>
      <rects>
        <_>
          0 0 1 6 -1.</_>
        <_>
          0 3 1 3 2.</_></rects>
      <tilted>0</tilted></_>
    <_>
      <rects>
        <_>
          0 0 6 2 -1.</_>
        <_>
          0 0 3 1 2.</_>
        <_>
          3 1 3 1 2.</_></rects>
      <tilted>0</tilted></_>
    <_>
      <rects>
        <_>
          0 0 6 11 -1.</_>
        <_>
          3 0 3 11 2.</_></rects>
      <tilted>0</tilted></_>
    <_>
      <rects>
        <_>
          0 0 6 28 -1.</_>
        <_>
          3 0 3 28 2.</_></rects>
      <tilted>0</tilted></_>
    <_>
      <rects>
        <_>
          0 0 10 1 -1.</_>
        <_>
          5 0 5 1 2.</_></rects>
      <tilted>0</tilted></_>
    <_>
      <rects>
        <_>
          0 0 28 8 -1.</_>
        <_>
          0 4 28 4 2.</_></rects>
      <tilted>0</tilted></_>
    <_>
      <rects>
        <_>
          0 1 2 4 -1.</_>
        <_>
          1 1 1 4 2.</_></rects>
      <tilted>0</tilted></_>
    <_>
      <rects>
        <_>
          0 1 6 27 -1.</_>
        <_>
          3 1 3 27 2.</_></rects>
      <tilted>0</tilted></_>
    <_>
      <rects>
        <_>
          0 1 10 27 -1.</_>
        <_>
          5 1 5 27 2.</_></rects>
      <tilted>0</tilted></_>
    <_>
      <rects>
        <_>
          0 2 6 9 -1.</_>
        <_>
          3 2 3 9 2.</_></rects>
      <tilted>0</tilted></_>
    <_>
      <rects>
        <_>
          0 3 12 26 -1.</_>
        <_>
          6 3 6 26 2.</_></rects>
      <tilted>0</tilted></_>
    <_>
      <rects>
        <_>
          0 4 2 22 -1.</_>
        <_>
          1 4 1 22 2.</_></rects>
      <tilted>0</tilted></_>
    <_>
      <rects>
        <_>
          0 4 27 22 -1.</_>
        <_>
          9 4 9 22 3.</_></rects>
      <tilted>0</tilted></_>
    <_>
      <rects>
        <_>
          0 4 30 4 -1.</_>
        <_>
          10 4 10 4 3.</_></rects>
      <tilted>0</tilted></_>
    <_>
      <rects>
        <_>
          0 6 12 20 -1.</_>
        <_>
          6 6 6 20 2.</_></rects>
      <tilted>0</tilted></_>
    <_>
      <rects>
        <_>
          0 7 4 16 -1.</_>
        <_>
          2 7 2 16 2.</_></rects>
      <tilted>0</tilted></_>
    <_>
      <rects>
        <_>
          0 8 3 11 -1.</_>
        <_>
          1 8 1 11 3.</_></rects>
      <tilted>0</tilted></_>
    <_>
      <rects>
        <_>
          0 20 29 10 -1.</_>
        <_>
          0 25 29 5 2.</_></rects>
      <tilted>0</tilted></_>
    <_>
      <rects>
        <_>
          0 24 1 6 -1.</_>
        <_>
          0 27 1 3 2.</_></rects>
      <tilted>0</tilted></_>
    <_>
      <rects>
        <_>
          0 26 6 3 -1.</_>
        <_>
          3 26 3 3 2.</_></rects>
      <tilted>0</tilted></_>
    <_>
      <rects>
        <_>
          1 0 26 6 -1.</_>
        <_>
          1 3 26 3 2.</_></rects>
      <tilted>0</tilted></_>
    <_>
      <rects>
        <_>
          1 0 27 2 -1.</_>
        <_>
          1 1 27 1 2.</_></rects>
      <tilted>0</tilted></_>
    <_>
      <rects>
        <_>
          1 6 23 18 -1.</_>
        <_>
          1 12 23 6 3.</_></rects>
      <tilted>0</tilted></_>
    <_>
      <rects>
        <_>
          1 20 29 10 -1.</_>
        <_>
          1 25 29 5 2.</_></rects>
      <tilted>0</tilted></_>
    <_>
      <rects>
        <_>
          1 22 27 8 -1.</_>
        <_>
          1 26 27 4 2.</_></rects>
      <tilted>0</tilted></_>
    <_>
      <rects>
        <_>
          1 28 8 2 -1.</_>
        <_>
          1 29 8 1 2.</_></rects>
      <tilted>0</tilted></_>
    <_>
      <rects>
        <_>
          2 0 27 10 -1.</_>
        <_>
          2 5 27 5 2.</_></rects>
      <tilted>0</tilted></_>
    <_>
      <rects>
        <_>
          2 28 2 2 -1.</_>
        <_>
          2 28 1 1 2.</_>
        <_>
          3 29 1 1 2.</_></rects>
      <tilted>0</tilted></_>
    <_>
      <rects>
        <_>
          3 0 25 6 -1.</_>
        <_>
          3 3 25 3 2.</_></rects>
      <tilted>0</tilted></_>
    <_>
      <rects>
        <_>
          3 22 3 6 -1.</_>
        <_>
          3 24 3 2 3.</_></rects>
      <tilted>0</tilted></_>
    <_>
      <rects>
        <_>
          3 24 23 6 -1.</_>
        <_>
          3 27 23 3 2.</_></rects>
      <tilted>0</tilted></_>
    <_>
      <rects>
        <_>
          4 13 16 16 -1.</_>
        <_>
          4 13 8 8 2.</_>
        <_>
          12 21 8 8 2.</_></rects>
      <tilted>0</tilted></_>
    <_>
      <rects>
        <_>
          4 26 24 4 -1.</_>
        <_>
          4 28 24 2 2.</_></rects>
      <tilted>0</tilted></_>
    <_>
      <rects>
        <_>
          5 0 15 30 -1.</_>
        <_>
          5 10 15 10 3.</_></rects>
      <tilted>0</tilted></_>
    <_>
      <rects>
        <_>
          5 1 20 10 -1.</_>
        <_>
          5 6 20 5 2.</_></rects>
      <tilted>0</tilted></_>
    <_>
      <rects>
        <_>
          5 18 22 12 -1.</_>
        <_>
          5 24 22 6 2.</_></rects>
      <tilted>0</tilted></_>
    <_>
      <rects>
        <_>
          6 0 18 2 -1.</_>
        <_>
          6 1 18 1 2.</_></rects>
      <tilted>0</tilted></_>
    <_>
      <rects>
        <_>
          6 28 17 2 -1.</_>
        <_>
          6 29 17 1 2.</_></rects>
      <tilted>0</tilted></_>
    <_>
      <rects>
        <_>
          7 15 16 2 -1.</_>
        <_>
          7 16 16 1 2.</_></rects>
      <tilted>0</tilted></_>
    <_>
      <rects>
        <_>
          8 29 3 1 -1.</_>
        <_>
          9 29 1 1 3.</_></rects>
      <tilted>0</tilted></_>
    <_>
      <rects>
        <_>
          9 4 7 26 -1.</_>
        <_>
          9 17 7 13 2.</_></rects>
      <tilted>0</tilted></_>
    <_>
      <rects>
        <_>
          10 3 11 24 -1.</_>
        <_>
          10 11 11 8 3.</_></rects>
      <tilted>0</tilted></_>
    <_>
      <rects>
        <_>
          11 13 4 4 -1.</_>
        <_>
          11 15 4 2 2.</_></rects>
      <tilted>0</tilted></_>
    <_>
      <rects>
        <_>
          12 10 4 2 -1.</_>
        <_>
          12 10 2 1 2.</_>
        <_>
          14 11 2 1 2.</_></rects>
      <tilted>0</tilted></_>
    <_>
      <rects>
        <_>
          12 16 1 3 -1.</_>
        <_>
          12 17 1 1 3.</_></rects>
      <tilted>0</tilted></_>
    <_>
      <rects>
        <_>
          13 18 2 2 -1.</_>
        <_>
          14 18 1 2 2.</_></rects>
      <tilted>0</tilted></_>
    <_>
      <rects>
        <_>
          14 12 1 6 -1.</_>
        <_>
          14 14 1 2 3.</_></rects>
      <tilted>0</tilted></_>
    <_>
      <rects>
        <_>
          14 12 2 6 -1.</_>
        <_>
          14 14 2 2 3.</_></rects>
      <tilted>0</tilted></_>
    <_>
      <rects>
        <_>
          15 3 3 3 -1.</_>
        <_>
          15 4 3 1 3.</_></rects>
      <tilted>0</tilted></_>
    <_>
      <rects>
        <_>
          16 2 4 10 -1.</_>
        <_>
          16 2 2 5 2.</_>
        <_>
          18 7 2 5 2.</_></rects>
      <tilted>0</tilted></_>
    <_>
      <rects>
        <_>
          17 0 10 1 -1.</_>
        <_>
          22 0 5 1 2.</_></rects>
      <tilted>0</tilted></_>
    <_>
      <rects>
        <_>
          18 9 7 2 -1.</_>
        <_>
          18 10 7 1 2.</_></rects>
      <tilted>0</tilted></_>
    <_>
      <rects>
        <_>
          19 19 2 2 -1.</_>
        <_>
          19 20 2 1 2.</_></rects>
      <tilted>0</tilted></_>
    <_>
      <rects>
        <_>
          20 3 10 25 -1.</_>
        <_>
          25 3 5 25 2.</_></rects>
      <tilted>0</tilted></_>
    <_>
      <rects>
        <_>
          22 4 8 23 -1.</_>
        <_>
          26 4 4 23 2.</_></rects>
      <tilted>0</tilted></_>
    <_>
      <rects>
        <_>
          24 0 6 1 -1.</_>
        <_>
          26 0 2 1 3.</_></rects>
      <tilted>0</tilted></_>
    <_>
      <rects>
        <_>
          24 0 6 30 -1.</_>
        <_>
          27 0 3 30 2.</_></rects>
      <tilted>0</tilted></_>
    <_>
      <rects>
        <_>
          24 1 6 26 -1.</_>
        <_>
          27 1 3 26 2.</_></rects>
      <tilted>0</tilted></_>
    <_>
      <rects>
        <_>
          24 29 3 1 -1.</_>
        <_>
          25 29 1 1 3.</_></rects>
      <tilted>0</tilted></_>
    <_>
      <rects>
        <_>
          25 0 3 2 -1.</_>
        <_>
          26 0 1 2 3.</_></rects>
      <tilted>0</tilted></_>
    <_>
      <rects>
        <_>
          25 26 4 4 -1.</_>
        <_>
          25 28 4 2 2.</_></rects>
      <tilted>0</tilted></_>
    <_>
      <rects>
        <_>
          26 0 4 1 -1.</_>
        <_>
          28 0 2 1 2.</_></rects>
      <tilted>0</tilted></_>
    <_>
      <rects>
        <_>
          26 0 4 2 -1.</_>
        <_>
          28 0 2 2 2.</_></rects>
      <tilted>0</tilted></_>
    <_>
      <rects>
        <_>
          26 2 4 4 -1.</_>
        <_>
          26 2 2 2 2.</_>
        <_>
          28 4 2 2 2.</_></rects>
      <tilted>0</tilted></_>
    <_>
      <rects>
        <_>
          26 5 4 19 -1.</_>
        <_>
          28 5 2 19 2.</_></rects>
      <tilted>0</tilted></_>
    <_>
      <rects>
        <_>
          26 26 4 4 -1.</_>
        <_>
          26 26 2 2 2.</_>
        <_>
          28 28 2 2 2.</_></rects>
      <tilted>0</tilted></_>
    <_>
      <rects>
        <_>
          27 25 2 4 -1.</_>
        <_>
          27 27 2 2 2.</_></rects>
      <tilted>0</tilted></_>
    <_>
      <rects>
        <_>
          28 0 2 6 -1.</_>
        <_>
          28 2 2 2 3.</_></rects>
      <tilted>0</tilted></_>
    <_>
      <rects>
        <_>
          28 1 1 6 -1.</_>
        <_>
          28 4 1 3 2.</_></rects>
      <tilted>0</tilted></_>
    <_>
      <rects>
        <_>
          28 1 2 24 -1.</_>
        <_>
          29 1 1 24 2.</_></rects>
      <tilted>0</tilted></_>
    <_>
      <rects>
        <_>
          28 6 2 24 -1.</_>
        <_>
          29 6 1 24 2.</_></rects>
      <tilted>0</tilted></_>
    <_>
      <rects>
        <_>
          29 13 1 9 -1.</_>
        <_>
          29 16 1 3 3.</_></rects>
      <tilted>0</tilted></_></features></cascade>
</opencv_storage>
